<?xml version="1.0"?>
<opencv_storage>
<my_svm type_id="opencv-ml-svm">
  <svm_type>C_SVC</svm_type>
  <kernel><type>LINEAR</type></kernel>
  <C>1.0000000000000000e-002</C>
  <term_criteria><epsilon>1.1920928955078125e-007</epsilon>
    <iterations>1000</iterations></term_criteria>
  <var_all>3780</var_all>
  <var_count>3780</var_count>
  <class_count>2</class_count>
  <class_labels type_id="opencv-matrix">
    <rows>1</rows>
    <cols>2</cols>
    <dt>i</dt>
    <data>
      -1 1</data></class_labels>
  <sv_total>1</sv_total>
  <support_vectors>
    <_>
      -4.98891734e-002 6.00849325e-003 3.77649963e-002 -8.96469727e-002
      -1.49929971e-002 -3.58046666e-002 8.30757152e-003 4.78636357e-004
      -6.38717636e-002 -1.12636447e-001 -4.39623138e-003 1.99468173e-002
      -6.16119169e-002 1.46772275e-002 -4.04610410e-002 3.37783322e-002
      2.12382758e-003 -9.32574123e-002 -2.53752619e-002 -2.67039938e-003
      1.97786782e-002 -8.54151249e-002 -6.94132373e-002 -5.84163927e-002
      4.44328859e-002 1.89590156e-002 -2.34531686e-002 -2.99547613e-002
      4.84129786e-003 5.71209900e-002 -8.11138973e-002 -9.38956160e-003
      -4.53521311e-002 4.36299555e-002 4.38854052e-003 -3.51044983e-002
      -3.20629589e-002 1.31187076e-002 -1.89944599e-002 -3.88910621e-002
      1.86609998e-002 -3.24233733e-002 1.59764644e-002 7.32174702e-003
      -6.96956366e-002 -2.43902113e-002 9.00321361e-003 -3.59117500e-002
      -6.38160035e-002 1.69274772e-005 -3.23539190e-002 -2.95036212e-002
      -3.42533253e-002 -5.24363853e-002 -1.88486427e-002 2.96311267e-002
      1.85898915e-002 -5.44581786e-002 -2.89048739e-002 -5.27538955e-002
      4.14677709e-002 6.96681254e-003 -3.63248177e-002 -3.19882780e-002
      4.84425016e-002 2.07372326e-002 -7.34359324e-002 -6.85769022e-002
      -3.77319269e-002 6.71648607e-003 2.54474604e-003 -7.56843910e-002
      -1.13749467e-002 -1.12894215e-002 -3.28997038e-002
      -5.82497753e-002 2.55314056e-002 -3.60496789e-002 -3.00356951e-002
      -4.49163690e-002 -2.34259609e-002 -3.04271020e-002
      -2.28037573e-002 -4.48389053e-002 -2.76509523e-002 2.31666099e-002
      -4.55926806e-002 -1.46454722e-002 -4.11967449e-002
      -2.38099191e-002 2.77358876e-003 2.43793558e-002 4.81374888e-003
      -3.59696634e-002 -3.56285721e-002 -1.61954407e-002 6.29620720e-003
      -2.09508333e-002 -3.51077653e-002 1.10644344e-002 4.31448855e-002
      4.06244490e-003 -3.84032773e-003 3.92321637e-003 -7.69947330e-003
      6.79514511e-003 -2.22106259e-002 -9.04821907e-004 -6.11288892e-003
      -4.96820584e-002 -3.51028405e-002 -2.80014854e-002 4.95655909e-002
      -3.81964147e-002 1.48671633e-002 -3.38216759e-002 -2.11703833e-002
      3.90815809e-002 1.05029298e-002 1.57914795e-002 5.89770451e-003
      1.01073198e-001 -1.81473466e-003 3.43242399e-002 5.24597522e-003
      1.54749053e-002 9.45197046e-003 -1.12107377e-002 1.68353505e-003
      -1.04743231e-003 -4.67691431e-003 -3.40115465e-002
      -1.51459267e-002 -3.94357219e-002 -1.25903105e-002 1.35923186e-002
      3.40697467e-002 5.90163693e-002 6.43970966e-002 2.93394793e-002
      2.63952948e-002 1.74314957e-002 1.99938230e-002 2.43082717e-002
      3.61564048e-002 -2.21273713e-002 -1.01444731e-002 -2.18048245e-002
      2.70058848e-002 -1.16861816e-002 8.26845691e-003 -3.92248817e-002
      2.29131076e-002 2.89573111e-002 5.07736951e-002 5.54063544e-002
      2.44910177e-002 3.89027894e-002 1.60886571e-002 4.21989709e-002
      -2.16808133e-002 7.47564156e-003 -1.73074957e-002 -3.34834084e-002
      2.66646612e-002 1.02976859e-002 -4.69739512e-002 -3.01389266e-002
      -5.24207838e-002 -7.09375367e-002 -1.97773539e-002 5.62174479e-003
      1.71820428e-002 7.63221085e-002 5.69272973e-002 -4.48785461e-002
      1.16659943e-002 9.37208161e-003 -2.94034667e-002 -3.47796525e-003
      5.88484108e-003 6.25338703e-002 6.31952435e-002 -1.59374960e-002
      2.70271879e-002 -1.20215248e-002 2.17158180e-002 -6.57171533e-002
      -3.72130722e-002 6.47478830e-003 7.59341568e-002 5.72644994e-002
      6.42850390e-003 8.23829919e-002 3.62366624e-002 6.59260154e-002
      6.12685969e-003 2.39249598e-003 -1.82601344e-002 -1.43859964e-002
      4.27686572e-002 8.15332867e-003 -5.15350103e-002 -3.10413968e-002
      2.70389183e-003 -8.77992362e-002 -3.33587080e-003 -3.96191189e-003
      -6.82567945e-003 4.43533696e-002 1.58576053e-002 -4.30822149e-002
      6.15761150e-004 4.79857363e-002 -1.62288249e-002 3.04490421e-002
      -3.60539975e-003 1.94782745e-002 8.93686805e-003 -4.21000049e-002
      4.62080054e-002 1.55480150e-002 3.49388272e-002 -2.67897192e-002
      -2.92482860e-002 4.46709767e-002 5.74539043e-002 6.21650666e-002
      4.84926952e-003 2.93707289e-002 -3.74135678e-003 7.26184398e-002
      -3.44212279e-002 -1.33285625e-002 -1.51577936e-002
      -2.07375418e-002 7.87992682e-003 -4.08206061e-002 -9.19835418e-002
      -1.78372916e-002 3.83879505e-002 -7.25213904e-003 4.81786439e-003
      1.32824108e-002 3.44487987e-002 4.99875098e-002 -7.04288774e-004
      -5.01045249e-002 -9.41460673e-003 8.16905871e-002 3.33039579e-003
      3.47454250e-002 1.91411134e-002 2.21795831e-002 4.82333712e-002
      -2.41151405e-003 3.08219753e-002 -3.62279750e-002 2.87259091e-002
      -5.99827990e-002 -1.71060488e-002 2.51917001e-002 2.25691851e-002
      4.20345552e-002 4.37122434e-002 6.09713830e-002 -1.68521460e-002
      8.64890032e-003 -2.97930110e-002 1.90145969e-002 1.83337964e-002
      -1.36265941e-002 1.81540456e-002 -1.40333045e-002 -1.54221505e-002
      -1.54762957e-002 1.85032729e-002 -5.72179966e-002 1.24403993e-002
      3.99632901e-002 -1.54028675e-002 2.88791060e-002 2.36224364e-002
      6.46597426e-003 5.99234691e-003 -1.72508787e-002 -4.48985174e-002
      1.67754921e-003 4.25778814e-002 -4.29325132e-003 2.63573020e-005
      -1.85817480e-002 2.93464623e-002 -5.30389883e-003 -1.03518763e-003
      -2.56541818e-002 3.48669738e-002 -2.12951051e-003 -4.24019247e-002
      2.75569428e-002 -1.00480011e-002 4.76422459e-002 -9.58060287e-003
      1.21427728e-002 -9.54506826e-003 1.36687085e-002 3.57185374e-003
      -4.12278157e-003 2.89396066e-002 1.76535826e-002 -2.54399646e-002
      -2.94161378e-003 -6.91296533e-003 -4.27240655e-002 6.61288342e-003
      2.97899134e-002 -1.84585955e-002 4.17018570e-002 1.34167233e-002
      -7.44275143e-003 -1.05713680e-002 1.04725650e-002 -2.58507440e-004
      3.22139822e-002 7.11205835e-003 -2.08696295e-002 4.22672406e-002
      -1.44636333e-002 7.79762194e-002 -8.86023510e-003 2.11522710e-002
      -3.11999600e-002 -1.22056725e-002 1.15406271e-002 1.99425779e-002
      7.24827200e-002 4.76335138e-002 9.80609134e-002 3.03180935e-003
      3.93023044e-002 6.67019456e-004 2.02596020e-002 4.64798759e-005
      -4.07993533e-002 1.26969982e-002 -2.86979154e-002 -1.18210055e-002
      -2.72489302e-002 5.18673239e-003 -2.07653623e-002 2.84460504e-002
      5.32765081e-003 3.61940503e-004 4.43938337e-002 1.00684138e-002
      1.01860836e-002 3.01747140e-003 1.73464362e-002 -1.59903392e-002
      -3.47113702e-003 4.20992412e-002 3.13546397e-002 2.54918076e-002
      -3.04432213e-002 3.12501602e-002 -2.16207821e-002 4.19416949e-002
      8.52525420e-003 2.82095037e-002 4.54755537e-002 5.11280708e-002
      2.68411636e-002 -4.13117297e-002 3.32856514e-002 -1.70535538e-002
      2.15231236e-002 6.08250871e-003 4.86454628e-002 4.37330976e-002
      -1.08677149e-003 3.06573021e-003 -2.94669941e-002 -3.53598632e-002
      -3.16272378e-002 3.21618989e-002 -1.37255304e-002 5.84046394e-002
      2.64138412e-002 1.14282565e-002 -2.32371036e-004 -5.86803928e-002
      -1.26778362e-002 -1.28025729e-002 3.60390507e-002 3.57390265e-003
      5.80296628e-002 4.56093438e-002 3.74786556e-002 1.73114557e-002
      -3.10193282e-002 9.61719360e-003 -1.22114420e-002 -1.83483528e-003
      -9.31122061e-003 2.71233730e-002 2.96378043e-002 4.05185632e-002
      6.11212663e-002 2.48135347e-002 1.06891297e-001 -9.04490612e-003
      2.80290432e-002 1.96238458e-002 2.42916290e-002 -9.46084131e-003
      7.21802749e-003 8.22642166e-003 -4.90720794e-002 -4.18042168e-002
      -1.65846050e-002 -2.51416545e-002 -3.77083709e-003 2.02913657e-002
      3.87152731e-002 2.25668140e-002 1.22020803e-002 -9.38814227e-003
      7.26378523e-003 1.08744856e-002 4.66431724e-003 1.39192324e-002
      3.40071730e-002 4.89116572e-002 1.41475713e-002 2.21087411e-003
      -8.80589476e-004 7.45147094e-002 9.31392773e-004 1.44950598e-002
      1.64569393e-002 3.70076187e-002 5.65801673e-002 2.07342580e-002
      -1.57611873e-002 -7.68844131e-003 4.02481519e-002 1.15278773e-002
      -1.57768112e-002 -9.17622447e-003 2.80426126e-002 3.79159264e-002
      7.57895177e-003 -7.38573121e-003 -2.16953605e-002 -4.47755530e-002
      -1.21847540e-002 -1.67558454e-002 -2.68083951e-003 5.30927964e-002
      8.26787949e-003 -1.59870666e-002 -2.67990977e-002 -3.14469971e-002
      -2.85279565e-002 4.86090733e-003 -3.10113393e-002 -1.38816899e-002
      2.87109371e-002 2.84828395e-002 -2.54892465e-002 -5.61238416e-002
      -5.29114455e-002 2.90958006e-002 2.82675773e-002 2.37934999e-002
      -3.07974927e-002 3.90998641e-004 1.17368326e-002 -1.46910055e-002
      -4.86527868e-002 -3.98586057e-002 2.57231202e-002 1.13162836e-002
      6.15506545e-002 2.53000576e-002 2.82855779e-002 5.58126532e-003
      -3.20214219e-002 -4.02821861e-002 -2.02569999e-002
      -4.00980227e-002 -7.42306840e-003 2.70893145e-003 -1.15927393e-002
      -9.75982565e-003 1.11896023e-002 2.54567005e-002 -3.37012038e-002
      -1.00274552e-002 -2.00133733e-002 3.30172181e-002 5.38027920e-002
      3.33994366e-002 4.45705419e-003 -3.75767052e-002 -9.95975081e-003
      5.63186314e-003 -2.46351324e-002 9.91821885e-002 -3.76868411e-003
      1.45445270e-002 2.10062265e-002 -3.34970430e-002 -1.35154668e-002
      1.23533392e-002 -3.26522104e-002 -5.01980074e-002 9.34377387e-002
      -2.40956489e-002 -3.51767242e-002 -1.65306497e-002
      -2.46998835e-002 -4.43855971e-002 3.52669954e-002 1.90456840e-003
      -1.72435064e-002 5.21562696e-002 3.42451334e-002 2.44654082e-002
      2.93102376e-002 -3.22513096e-002 -3.16537581e-002 3.70799787e-002
      -2.23848721e-004 7.83323590e-003 2.75686886e-002 -2.41900440e-002
      3.09874048e-003 1.78815424e-002 -1.52296806e-002 -6.07225895e-002
      9.05964058e-003 2.67289132e-002 -4.92984243e-002 -7.90823027e-002
      -7.48534054e-002 3.00064851e-002 2.79129352e-002 -2.90618371e-002
      -7.43937790e-002 6.93665771e-003 4.29336503e-002 -3.25419754e-002
      -3.73603627e-002 -6.64509386e-002 5.59331151e-003 -7.17991823e-003
      -6.82298765e-002 -1.52961798e-002 4.69665565e-002 4.73414920e-002
      -3.95081714e-002 -3.04678977e-002 -5.73581159e-002 1.79446433e-002
      1.32192178e-002 -3.30608226e-002 -5.09752594e-002 3.93147096e-002
      4.76641059e-002 3.13790934e-003 -1.28772995e-002 -2.67692599e-002
      2.34927591e-002 1.05673755e-002 -5.45235686e-002 -5.78465350e-002
      1.57931093e-002 1.90397482e-002 -8.51547252e-003 -3.93929966e-002
      -4.14946191e-002 3.84177007e-002 1.01616941e-002 -5.33355251e-002
      -5.99768572e-002 6.53385324e-003 2.23265588e-003 -2.28189621e-002
      -5.83028346e-002 -2.73599979e-002 1.48864919e-002 6.66472269e-003
      -8.33324865e-002 -6.25476800e-003 1.99271571e-002 -3.10384668e-002
      -2.23147813e-002 -3.09244283e-002 -3.52892242e-002 5.41854389e-002
      7.25516155e-002 5.26497001e-003 -4.59874794e-002 9.95314494e-003
      -3.83411758e-002 -7.47840758e-003 9.50129796e-003 1.57367997e-003
      7.55560100e-002 6.85049370e-002 -3.67508195e-002 -1.87235288e-002
      7.64411967e-003 -1.47192068e-002 -3.92428488e-002 -6.46877885e-002
      -1.16159609e-002 -8.10553879e-003 -1.76155556e-003
      -4.93304320e-002 4.10104264e-003 -4.28074738e-003 -7.28619285e-003
      -2.53439322e-003 6.64990721e-003 -2.22817082e-002 -2.81828362e-002
      -4.06394899e-002 -3.41894031e-002 -1.03329867e-002 1.48645639e-002
      7.89238838e-004 5.06259734e-003 1.08777527e-002 -4.94688842e-003
      9.38697252e-003 -1.81324296e-002 -3.78485546e-002 4.79540601e-002
      2.73586214e-002 -2.20238585e-002 -2.44739242e-002 -1.42526934e-002
      7.41418451e-003 -9.74654406e-003 -4.16713655e-002 -6.08143071e-003
      5.92625584e-004 -5.33192679e-002 -1.18245427e-002 1.08726490e-002
      -7.82305375e-003 -2.66658422e-002 -3.05874199e-002
      -2.79122684e-002 -1.17411306e-002 -2.50705946e-002
      -6.44549355e-002 3.86675522e-002 7.78859332e-002 1.58825573e-002
      1.67033393e-002 1.19408658e-002 2.15653493e-003 1.57859586e-002
      5.55512123e-002 -6.82892427e-002 -1.11761786e-001 -5.60218841e-002
      -1.47513039e-002 -7.80344242e-003 -2.08773483e-002
      -2.81285010e-002 4.10297401e-002 1.09612232e-003 -1.18662797e-001
      -5.41169532e-002 3.62212099e-002 4.49469090e-002 3.06246169e-002
      2.70853080e-002 3.18456218e-002 8.43056962e-002 -6.00613244e-002
      -8.96636099e-002 2.91277710e-002 4.22383696e-002 -1.94775667e-002
      -1.47700254e-002 -2.16849800e-002 -2.76440773e-002 5.20351948e-003
      -1.54565116e-002 -6.02822937e-002 6.05531484e-002 6.82625249e-002
      -2.14026030e-002 -4.70077526e-003 4.58633061e-003 -1.99950114e-002
      2.06893645e-002 -7.39010870e-002 -1.61430910e-001 -1.67277586e-002
      2.22672615e-002 3.81129496e-002 -1.07249934e-002 -1.01404451e-003
      -1.31088756e-002 5.08873463e-002 -3.87193225e-002 -9.49826539e-002
      4.66646254e-002 6.13586418e-003 -1.01127587e-002 -1.83792058e-002
      -1.91221815e-002 1.67264920e-002 5.89522906e-002 4.78460127e-003
      -7.91632086e-002 5.70184365e-003 3.50570455e-002 -2.37626731e-002
      -3.88160050e-002 9.23360058e-004 -7.12072179e-002 3.73174553e-004
      1.13969715e-002 -4.33040373e-002 2.81296782e-002 2.31333561e-002
      -3.57134752e-002 6.92684529e-003 3.81321907e-002 -2.05826536e-002
      2.87237819e-002 -3.28170396e-002 -9.81735289e-002 -1.78693123e-002
      -6.87455013e-003 -9.94333459e-005 -2.91043893e-002
      -2.43805293e-002 -4.75102030e-002 4.86557558e-002 -7.61465123e-003
      -4.15677391e-002 2.52386779e-002 1.03400098e-002 2.29240675e-002
      3.31095271e-002 1.31021161e-002 6.05292758e-003 4.61675674e-002
      -9.84815881e-003 -3.81497741e-002 2.38506384e-002 -1.49709610e-002
      -4.68882583e-002 -1.69603787e-002 1.60058439e-002 -3.17372717e-002
      -4.84659243e-003 1.16906594e-002 1.22226309e-002 4.04710323e-002
      3.47582847e-002 -1.30516221e-003 1.56238619e-002 1.01127038e-002
      -1.96415931e-002 2.02827174e-002 -5.44182621e-002 -8.46267566e-002
      2.69289296e-002 -1.46519567e-003 -1.65968854e-002 -2.65921000e-002
      -2.22287253e-002 -6.81087375e-003 2.71847192e-002 -6.53813332e-002
      -6.72922209e-002 3.23067904e-002 4.33226489e-002 -7.98279606e-003
      4.96681174e-003 -3.42065170e-002 -3.10221687e-002 -1.24160564e-002
      1.82788968e-002 -1.26490835e-002 1.82807054e-002 4.86961612e-003
      1.78579744e-002 2.34905481e-002 -7.13311043e-003 -5.62990196e-002
      9.90456063e-003 2.76758727e-002 -1.75030846e-002 4.04643193e-002
      1.53722158e-002 -1.59133766e-002 -1.26980506e-002 -1.10816052e-002
      -4.28511575e-002 1.55494707e-002 -7.81974867e-002 -5.56674413e-002
      1.00366184e-002 1.22793121e-002 1.79811530e-002 -7.14779273e-003
      -2.54310817e-002 -4.41397801e-002 -5.91820665e-003
      -3.61216925e-002 -2.07493100e-002 2.76170652e-002 4.22701193e-003
      -3.23441438e-002 -5.54274283e-002 -1.34105375e-002
      -5.62819950e-002 -5.68828657e-002 2.63273586e-002 2.70232209e-003
      3.84581871e-002 1.28701096e-002 -3.79565731e-002 -8.50403402e-003
      3.99860851e-002 2.07939837e-003 2.29954459e-002 2.99059786e-003
      -9.02434904e-003 3.50450911e-002 -5.52730821e-003 -1.53025622e-002
      -2.09930609e-003 5.07928617e-002 5.29005863e-002 4.70408350e-002
      3.96604696e-003 1.39525523e-002 2.43614893e-002 -1.60491411e-002
      -5.94227314e-002 -4.62533720e-002 -2.23615915e-002
      -2.80012581e-002 -1.07297087e-002 -3.02437898e-002 3.55393887e-002
      2.97267698e-002 -4.49680313e-002 -8.29017088e-002 -4.37912494e-002
      2.50401255e-002 2.64531318e-002 8.64264206e-004 3.00747529e-003
      -3.63257974e-002 4.56992351e-002 -3.51793738e-003 -1.09645929e-002
      1.49310082e-002 3.38718556e-002 2.04419494e-002 4.19721045e-002
      1.99988186e-002 -2.73923259e-002 6.07049726e-002 3.56054120e-002
      3.09216771e-002 3.04570310e-002 5.16149960e-002 1.72494445e-002
      5.81461750e-002 -4.01651151e-002 -5.58928549e-002 2.07503866e-002
      -4.26557101e-002 -7.41638914e-002 -2.32317615e-002 5.03168590e-002
      4.81769815e-002 1.27218757e-002 -7.16266129e-003 -5.77561371e-002
      1.10792490e-002 3.86407482e-003 -2.89584119e-002 7.31840543e-003
      7.71510527e-002 5.60640097e-002 1.62296593e-002 5.12592234e-002
      -3.25536393e-002 3.32814083e-002 3.95488590e-002 -3.30155203e-003
      -1.43615846e-002 5.12354933e-002 9.95455123e-003 8.83460492e-002
      5.25007583e-002 7.12706707e-003 2.55976748e-002 -1.61424130e-002
      1.23151671e-002 8.24581459e-003 4.41583991e-002 4.22014855e-002
      7.55930692e-002 3.39717604e-002 -5.25958985e-002 -4.84214770e-003
      -2.58264691e-003 -8.85826871e-002 -5.49464710e-002 1.99193116e-002
      -2.19601300e-003 6.09219521e-002 3.00563499e-002 -2.49935221e-002
      1.16691040e-002 -4.15532403e-002 -6.28004894e-002 -2.49863323e-002
      4.45560878e-003 4.65592071e-002 4.86223586e-002 1.95103660e-002
      1.76091157e-002 2.33979262e-002 -1.68933421e-002 6.41001435e-003
      3.54877971e-002 4.23190296e-002 2.37608701e-002 3.19169201e-002
      5.05368561e-002 2.96860794e-003 1.23251891e-002 1.35712663e-003
      3.23864482e-002 2.64590066e-002 2.92878207e-002 3.11777722e-002
      7.81726316e-002 1.26909325e-002 -3.50946076e-002 -5.31952921e-003
      -3.12933922e-002 -4.04159054e-002 -1.95012726e-002 2.05988903e-002
      3.15632410e-002 5.42378686e-002 1.02792995e-003 -2.86310650e-002
      -3.16471122e-002 -3.28572951e-002 -2.44319867e-002
      -5.14977798e-002 -1.26014212e-002 3.49136768e-003 5.53761497e-002
      6.29371777e-002 1.73846409e-002 2.25873338e-003 -9.32022836e-003
      9.59134847e-003 2.40223147e-002 1.93702686e-003 -3.77556426e-003
      7.34275430e-002 3.71323973e-002 3.49840708e-002 7.91139994e-003
      5.54832518e-002 6.93310276e-002 4.38692905e-002 1.07511051e-003
      2.03663129e-002 4.49277908e-002 6.75717695e-003 -5.53356335e-002
      -4.03802022e-002 -6.54430389e-002 -3.60969752e-002
      -6.57961965e-002 -5.86903468e-002 -3.34222429e-002 2.05718167e-002
      -1.52971558e-002 -4.68292050e-002 -3.76607925e-002
      -8.60547274e-003 1.42910122e-003 -1.41212987e-002 -5.75840883e-002
      -5.20179011e-002 1.24812126e-003 1.20095443e-003 1.81611665e-002
      -2.54987106e-002 5.29492125e-002 2.34224536e-002 -2.27263737e-002
      -3.65740098e-002 -1.29018584e-002 -2.44698096e-002 1.11360326e-002
      4.35311645e-002 4.39990917e-003 5.06116636e-002 4.06362787e-002
      5.23838215e-002 4.15115990e-002 2.40679868e-002 -3.71170677e-002
      -3.33804861e-002 -7.84589257e-003 -4.08199430e-002
      -9.57944524e-003 -5.24963364e-002 -5.32538444e-002
      -8.02010819e-002 -6.58013523e-002 -4.39992659e-002 3.63952145e-002
      6.83111623e-002 3.75663377e-002 5.95927238e-002 7.79345538e-003
      -7.98652973e-003 5.77328866e-003 3.49087380e-002 -9.72062815e-003
      -5.46923503e-002 2.88118217e-002 7.46340118e-003 -8.33241909e-004
      5.45738488e-002 5.17827645e-002 3.53076868e-002 1.65164787e-002
      -9.20289159e-002 -8.72277841e-003 2.96542384e-002 1.29980072e-002
      -3.20117548e-002 1.89717591e-003 -1.62993595e-002 2.00227015e-002
      2.40700264e-002 -3.04449685e-002 -5.06304055e-002 2.27730665e-002
      1.98664609e-002 1.74356103e-002 4.53231670e-002 1.05978996e-002
      1.49453310e-002 3.35305221e-002 -6.60650432e-002 1.13559477e-002
      2.29702480e-002 1.02348498e-003 -3.77027169e-002 5.12048975e-003
      -2.52055395e-002 -1.40663115e-002 4.53209840e-002 1.20465737e-002
      -1.69995446e-002 2.41701491e-002 -6.56710053e-003 -8.40818286e-002
      -3.89215089e-002 -3.64539996e-002 3.49172875e-002 4.06439044e-002
      -3.97874527e-002 -5.79660647e-002 3.06207053e-002 -1.77400168e-002
      -5.00272512e-002 -2.17809491e-002 -2.36628111e-002 5.23861200e-002
      4.44785804e-002 -8.63252133e-002 -6.00939654e-002 2.86188722e-002
      3.23104225e-002 -4.97418307e-002 -2.72202268e-002 -2.37976182e-002
      6.57954067e-002 4.11054455e-002 -7.54974931e-002 -5.95711097e-002
      6.53031245e-002 1.38498964e-002 -5.13982438e-002 -2.80127302e-002
      -4.46522236e-002 8.25023130e-002 7.43821338e-002 -9.59085003e-002
      2.95324121e-002 2.28370056e-002 -7.08700940e-002 -7.00078979e-002
      -2.65743732e-002 3.64902839e-002 8.61096904e-002 9.99081433e-002
      3.84841897e-002 -7.12586269e-002 -1.02008618e-001 -7.98136890e-002
      -5.86550683e-002 2.18887087e-002 1.93151459e-002 5.39216027e-002
      3.68423946e-002 -4.52775806e-002 4.45872955e-002 -1.53666008e-002
      -1.89003721e-001 -1.78812891e-001 -9.99117196e-002
      -2.29899101e-002 6.88578486e-002 1.32267520e-001 6.15575947e-002
      -9.90880653e-002 -1.61260888e-001 -2.06369162e-001
      -1.47297591e-001 -6.99293837e-002 8.70727003e-003 3.04923858e-002
      3.27471606e-002 -5.02100065e-002 -6.66506365e-002 -4.50817570e-002
      9.86188068e-004 2.12954059e-002 6.80558458e-002 3.90392914e-002
      9.87429358e-003 -5.77273481e-002 -7.22747445e-002 1.70032810e-002
      1.23687191e-002 -5.28004989e-002 -4.17385213e-002 2.22385228e-002
      2.05031950e-002 -3.70818861e-002 -1.07065186e-001 -4.24400643e-002
      -1.21340759e-001 -1.11681327e-001 -4.81252223e-002
      -1.99995674e-002 4.79956642e-002 3.92914787e-002 -1.73508301e-002
      -1.11632697e-001 -1.53918251e-001 -1.13500692e-002
      -6.85299858e-002 -1.07011065e-001 -7.34695122e-002 5.67162642e-003
      2.67917477e-003 -1.01268105e-001 -1.48241773e-001 -1.06007382e-001
      5.93368709e-002 -1.69913337e-001 -2.36155942e-001 -1.39561206e-001
      -1.81490108e-002 1.95682738e-002 5.26403543e-003 -3.92346345e-002
      8.52373391e-002 1.72490068e-002 -1.47339538e-001 -1.36265501e-001
      1.98739637e-002 6.78251311e-002 9.87352282e-002 8.10978338e-002
      5.66965640e-002 1.47154063e-001 9.68582407e-002 -1.74513310e-001
      -2.64193118e-001 -1.67497844e-001 -1.30920857e-002
      -2.10234784e-002 -5.12533970e-002 -7.71431178e-002 5.45073636e-002
      9.83033106e-002 -6.46812171e-002 -9.58820879e-002 1.76587608e-002
      8.81167874e-002 8.63189250e-002 4.72511835e-002 5.83783984e-002
      1.50738493e-001 -7.35892728e-002 -1.88287348e-001 -6.92529827e-002
      8.49825423e-003 1.03645492e-002 1.23055456e-002 -3.13414708e-002
      -5.76706305e-002 5.28770760e-002 -2.37157643e-002 -9.70991775e-002
      5.53660691e-002 2.18768101e-002 3.05247065e-002 -1.02342525e-002
      -3.07896789e-002 -1.71212051e-002 3.45550366e-002 2.86336523e-002
      -6.60854802e-002 -1.58454571e-002 6.20391071e-002 5.77941574e-002
      6.83687208e-003 -5.06848395e-002 -4.07266058e-002 6.84554279e-002
      2.50423811e-002 -7.56713189e-003 6.20641112e-002 7.40197673e-002
      6.80477172e-002 2.52712388e-002 1.65900290e-002 -9.86046996e-003
      1.73098631e-002 -3.29278149e-002 -1.37056977e-001 9.80221946e-003
      2.64274944e-002 6.31329045e-002 1.16946595e-003 -1.55363148e-002
      -6.03122525e-002 4.67263348e-003 -6.33758456e-002 -1.23842739e-001
      -8.83422606e-003 2.01145671e-002 4.93520238e-002 1.11518698e-002
      1.83057494e-003 -2.83857714e-002 1.79311838e-002 -1.29562495e-002
      -8.41113701e-002 3.33196707e-002 2.94354185e-002 9.07164440e-002
      4.44609635e-002 5.00506572e-002 -1.58565287e-002 2.00368520e-002
      -1.33729381e-002 -3.60170901e-002 3.15250009e-002 5.05978577e-002
      6.76571429e-002 3.86936106e-002 1.01133995e-002 7.91626575e-004
      3.98769006e-002 -7.05529600e-002 -1.41265079e-001 -1.43617401e-002
      -1.95621816e-003 3.17758210e-002 -2.90652681e-002 -4.21560332e-002
      -5.04689589e-002 -9.05312318e-003 -9.46781859e-002
      -8.70457962e-002 3.58631238e-002 6.89517707e-002 3.03690601e-002
      9.93775856e-003 -4.42438610e-002 -5.05346768e-002 -3.06523927e-002
      1.52414963e-002 -2.59460062e-002 5.22909276e-002 2.07862686e-002
      1.61447432e-002 -1.57936569e-002 -1.84273180e-002 3.19176470e-003
      7.16507658e-002 2.14655716e-002 9.07997321e-003 8.88775438e-002
      7.26523027e-002 7.68210925e-003 3.16579361e-003 1.62497517e-002
      1.62583366e-002 4.56948169e-002 -1.13241576e-001 -9.51511264e-002
      -1.35663096e-002 5.44536188e-002 4.10117172e-002 -9.90212150e-003
      -1.53026162e-002 -7.87057132e-002 -9.18730721e-002
      -1.09366283e-001 -3.47291678e-002 2.64829732e-002 4.76663113e-002
      2.27735359e-002 -2.28106659e-002 -3.14112157e-002 -1.16272442e-001
      -1.34401828e-001 1.84590407e-002 -8.23673699e-003 4.83486913e-002
      5.43959774e-002 3.57600339e-002 -2.73644496e-002 7.41876941e-003
      -4.98785172e-003 5.85942008e-002 3.66686322e-002 4.28363308e-002
      7.35858753e-002 9.60934982e-002 5.56964576e-002 2.46427339e-002
      2.69415528e-002 -3.78577113e-002 2.58175135e-002 -7.19832256e-002
      -6.79549586e-004 5.23629375e-002 5.10414690e-002 2.02618744e-002
      -1.77358333e-002 -3.08184419e-002 -1.31467566e-001
      -1.18418030e-001 -7.63705224e-002 -1.20599810e-002 5.54368570e-002
      3.22464369e-002 -4.32857387e-002 -3.99662331e-002 -1.61065895e-003
      -7.62844905e-002 -6.12524524e-002 3.30823958e-002 2.36226227e-002
      1.00770310e-001 1.25314146e-001 8.72683525e-002 3.10318638e-002
      1.96982231e-002 -5.68505675e-002 -9.24869440e-003 -1.89255327e-002
      5.28001552e-003 8.77192318e-002 1.06920227e-001 2.24673655e-002
      2.45570838e-002 7.07711801e-002 -3.43929678e-002 -4.06610854e-002
      -4.08227332e-002 -3.25242691e-002 5.23261726e-002 1.62941553e-002
      -1.64596736e-002 2.84312032e-002 4.89671491e-002 -1.32286455e-002
      -1.33811338e-002 -2.32392326e-002 -5.56014441e-002 2.53020283e-002
      4.89192680e-002 2.41443198e-002 3.64060625e-002 6.20412380e-002
      1.03771407e-002 6.53572939e-003 -1.53375501e-002 -2.15344634e-002
      9.46836248e-002 8.16933215e-002 3.82907949e-002 7.36196786e-002
      9.21973735e-002 -8.36356543e-003 2.13315617e-002 -5.85332848e-002
      -7.55931810e-002 2.43736282e-002 7.78029412e-002 7.24395365e-002
      6.32280633e-002 6.02491722e-002 4.64894623e-003 -3.49551924e-002
      3.79211679e-002 -6.53707683e-002 2.96257585e-002 6.15282580e-002
      -1.21263182e-002 8.42667650e-003 5.38816191e-002 -1.14995446e-002
      3.93917859e-002 3.98507938e-002 -3.82744707e-002 5.23237288e-002
      4.55671065e-002 1.23025831e-002 3.93056087e-002 3.96658629e-002
      3.04823983e-002 5.04223853e-002 -1.05571840e-002 -1.17096163e-001
      1.30878454e-002 5.34093641e-002 2.98365373e-002 3.47284302e-002
      4.32304740e-002 -3.30916210e-003 2.79760286e-002 -3.39634456e-002
      -7.22142458e-002 4.53232750e-002 4.24374342e-002 2.97570098e-002
      3.15565392e-002 5.62953763e-002 2.86258571e-002 -1.57152675e-002
      5.25248200e-002 -1.73665769e-002 3.19144130e-002 4.99785021e-002
      7.48456940e-002 6.33435100e-002 6.96056038e-002 2.80225389e-002
      6.69590011e-002 -6.20734040e-003 -3.31050120e-002 8.18817504e-003
      3.48321386e-002 5.17103001e-002 2.65320707e-002 5.54240383e-002
      1.56420134e-002 2.95512341e-002 -2.01083049e-002 -5.36282621e-002
      5.89124858e-002 5.74248284e-002 8.70484784e-002 7.07532987e-002
      8.92609656e-002 1.20306225e-003 -5.51743899e-003 -8.52537900e-002
      -9.15847644e-002 -4.18518111e-003 1.98212024e-002 6.52540475e-002
      3.89258638e-002 4.88943234e-002 -5.96034899e-002 -9.34347436e-002
      -2.62943236e-003 -5.68908080e-002 3.58070130e-003 1.20419906e-002
      4.57907133e-002 2.53846198e-002 9.99250077e-003 -1.47538376e-003
      3.95363197e-002 1.54474517e-002 -1.01572718e-003 -4.16865759e-003
      6.07844107e-002 3.84826884e-002 7.45627135e-002 1.41677475e-002
      1.35716759e-002 5.82135022e-002 -5.49103618e-002 -1.22393630e-001
      -7.51749203e-002 -5.67084476e-002 5.53076118e-002 1.86433177e-002
      -1.96693148e-002 -4.37848456e-002 -4.81952652e-002
      -6.15810342e-002 -6.82806820e-002 -7.38414675e-002
      -3.11176069e-002 -3.05676293e-002 -1.27499569e-002
      -3.01773418e-002 -4.06581201e-002 -3.62706594e-002 1.27363456e-002
      1.05872480e-002 -2.45132241e-002 -3.34749743e-002 -1.02950610e-001
      -7.88259283e-002 -5.20480052e-002 -3.91676538e-002
      -2.68797769e-004 7.46522769e-002 8.94486308e-002 8.27574655e-002
      9.02944133e-002 3.99417169e-002 -7.44743599e-003 3.38423364e-002
      6.76504448e-002 6.35554269e-002 -3.85200493e-002 -5.66164888e-002
      -4.60095406e-002 -9.95169133e-002 -1.65540487e-001
      -1.48363888e-001 -9.28155631e-002 -8.47806334e-002
      -4.51358296e-002 8.20316821e-002 5.93013354e-002 6.96924701e-002
      8.00898075e-002 -2.15442441e-002 -6.04614476e-003 3.61167938e-002
      5.67919798e-002 6.00257330e-002 -4.07212451e-002 -3.20131355e-003
      1.04579786e-002 1.59025006e-002 3.04801129e-002 -3.64099964e-002
      1.90061815e-002 1.30629158e-002 -3.41580361e-002 2.36524288e-002
      3.75083163e-002 -6.58591762e-006 -3.54634449e-002 -1.19866114e-002
      -5.89108244e-002 -5.07303700e-002 -8.48348532e-003 2.21169703e-002
      -6.34208461e-003 2.41551455e-002 2.49176510e-002 4.90796082e-002
      3.47448029e-002 -2.03754138e-002 3.93209560e-003 2.13458352e-002
      -1.48757799e-002 1.70123335e-002 6.05155043e-002 1.59064960e-002
      9.12754051e-003 1.69771332e-002 -2.58844644e-002 -5.66854216e-002
      1.74175035e-002 1.50317447e-002 -8.13648552e-002 2.76187230e-002
      6.94368109e-002 1.49125867e-002 -1.46549130e-002 -1.79601293e-002
      4.23128121e-002 3.15084793e-002 -1.05660446e-001 -7.77245238e-002
      6.71079233e-002 1.94084961e-002 -7.97846690e-002 -7.73579329e-002
      -6.88154176e-002 2.95318812e-002 6.11994490e-002 -1.23046741e-001
      -9.25719514e-002 1.85088143e-002 8.63453075e-002 9.18352162e-004
      -2.32145321e-002 6.00472558e-003 5.50517105e-002 5.44185378e-002
      -1.02735318e-001 -9.11501125e-002 4.94404174e-002 5.80038875e-002
      -6.26444221e-002 -5.74066453e-002 -4.85616624e-002 3.80470045e-002
      9.13060233e-002 -7.01690391e-002 9.86883342e-002 4.10692692e-002
      -1.18094862e-001 -1.76294819e-001 -1.43756747e-001
      -7.87456930e-002 -1.16887568e-002 9.78400037e-002 8.41543451e-002
      1.89575739e-002 -8.36150795e-002 -1.23642452e-001 -1.42557323e-001
      -1.02912113e-001 -6.17612042e-002 -3.71128432e-002 9.92811937e-003
      5.17395623e-002 9.26577896e-002 1.02354832e-001 3.93748842e-003
      -7.31930733e-002 -1.33074820e-001 -1.75595731e-001
      -1.11104816e-001 4.86360677e-002 7.93329775e-002 1.87209677e-002
      3.03195417e-002 -1.47293517e-002 -5.70003465e-002 -8.51305202e-002
      -1.46077126e-001 -1.45249754e-001 -9.37847570e-002
      -2.19658297e-002 -6.92022443e-002 -8.44784379e-002
      -2.21180301e-002 -4.98966407e-003 3.78349759e-002 2.43128128e-002
      -5.73598500e-003 -7.56866038e-002 -8.10294300e-002
      -1.39145646e-003 -4.54696044e-002 -9.32191685e-002
      -5.80813661e-002 -7.98057579e-003 -2.32565608e-002
      -8.27692524e-002 -8.71602967e-002 -4.37016450e-002
      -9.10260901e-002 -7.96918720e-002 7.35673355e-003 4.96929847e-002
      2.31540948e-002 -1.38439266e-002 -2.66364105e-002 -9.74294767e-002
      -8.91650915e-002 -5.03183305e-002 -1.22634456e-001
      -1.00532733e-001 -2.24001780e-002 -1.93443429e-002
      -6.39580935e-002 -8.37007985e-002 -3.35576646e-002
      -1.58200450e-002 1.04696184e-001 -9.00159255e-002 -1.82862148e-001
      -1.65329590e-001 -4.25162613e-002 -8.23770240e-002
      -9.83721241e-002 -6.80854097e-002 6.88018575e-002 1.80617124e-001
      3.52304690e-002 4.00754111e-003 2.29217764e-002 4.16307636e-002
      2.03089770e-002 4.39382112e-003 2.92014610e-002 1.62455186e-001
      4.08046357e-002 -7.08644837e-002 -1.28356442e-001 -1.13199972e-001
      -6.68940693e-002 -1.63951218e-001 -1.67001382e-001
      -7.45735541e-002 9.97292921e-002 1.49488583e-001 5.27791381e-002
      -9.67642944e-003 -3.34468321e-004 4.49666679e-002 4.33732057e-003
      3.09266557e-004 5.46226799e-002 1.71196520e-001 9.14745033e-002
      -4.53609191e-002 -1.62735265e-002 1.45803941e-002 3.89601849e-002
      -3.90488356e-002 -5.07903360e-002 -5.63128479e-002 8.08466077e-002
      6.13547191e-002 1.49992108e-002 4.82944101e-002 7.73479342e-002
      7.56796375e-002 3.75629924e-002 1.08653260e-002 -8.91225412e-003
      5.67342192e-002 6.29861280e-002 -3.55971120e-002 -3.33527885e-002
      -1.75114851e-002 4.23597991e-002 -1.30153773e-002 -1.24616371e-002
      -2.38630008e-002 6.14219531e-002 5.38346954e-002 1.24245873e-002
      2.02887170e-002 5.88167161e-002 8.14403147e-002 5.79098165e-002
      5.96956089e-002 1.53059652e-002 3.45378704e-002 3.23275812e-002
      -1.88535191e-002 3.72857926e-003 -7.61143444e-003 3.30800936e-002
      -5.87528921e-004 1.31311035e-002 -2.43499167e-002 2.75043398e-002
      5.16979881e-002 -8.17199517e-003 3.73520441e-002 -2.26883050e-002
      1.71096027e-002 4.38541314e-003 1.51756145e-002 5.61521528e-003
      8.95828977e-002 2.79835258e-002 -1.75930448e-002 8.33209790e-003
      1.48531450e-002 3.20441946e-002 -4.13265731e-003 6.37034280e-003
      -7.98336416e-003 3.27096879e-002 6.84552938e-002 1.54058798e-003
      4.58886521e-003 1.65123716e-002 4.49234881e-002 1.42733741e-004
      3.56257744e-002 1.86302094e-003 4.11156639e-002 9.07961130e-002
      -1.34518826e-002 6.37683040e-003 -4.50431071e-002 -5.41072860e-002
      -6.04085214e-002 -1.88091416e-002 5.83172450e-003 1.06952846e-001
      9.96737778e-002 2.42503528e-002 1.55102042e-002 -9.89450142e-003
      -5.53436503e-002 -6.71646297e-002 -1.14665441e-002 2.36685686e-002
      9.85886231e-002 7.66928643e-002 -1.29084499e-003 -4.31360789e-002
      -5.04090413e-002 3.57712014e-003 -1.42001286e-002 2.74860431e-002
      -6.84287911e-003 7.25349635e-002 8.69251117e-002 2.44780779e-002
      -3.57444473e-002 -6.04072511e-002 -7.31804818e-002
      -8.76772497e-003 6.22694232e-002 4.76673953e-002 5.84569722e-002
      9.00573283e-002 -3.82157671e-003 -6.54337136e-003 -5.13355173e-002
      -9.41889733e-002 -9.36531425e-002 -1.67808440e-002
      -3.73758599e-002 7.97935799e-002 1.00959793e-001 2.07196530e-002
      4.21376750e-002 5.42833796e-003 -4.00278866e-002 -5.34683792e-003
      1.10984175e-002 -4.20134440e-002 1.02057517e-001 7.14433864e-002
      -2.37943530e-002 -4.42813039e-002 -9.55467671e-002
      -1.07640713e-001 -4.34476994e-002 2.01355740e-002 -8.89410207e-004
      5.88682592e-002 1.01762354e-001 -1.93622371e-003 6.39250909e-004
      -1.17429914e-002 -4.66180965e-002 7.81827793e-003 4.25900221e-002
      1.65413134e-002 7.68464580e-002 8.94199163e-002 -3.21934000e-002
      4.23014238e-002 4.62754183e-002 1.91987790e-002 -4.91316896e-003
      1.68455560e-002 -6.80536181e-002 5.40709682e-002 -8.65080580e-003
      -8.30296427e-002 5.46885692e-002 5.27407862e-002 4.57471889e-003
      1.19080739e-002 1.71454288e-002 -6.21355027e-002 -9.07837972e-003
      4.73251268e-002 -3.57287452e-002 4.55527678e-002 2.98937014e-003
      -1.17218960e-002 1.67503767e-002 2.57115141e-002 -2.89555732e-002
      7.94076398e-002 5.21524949e-003 -4.70493324e-002 4.73721251e-002
      1.37419673e-002 1.78859278e-003 1.74956191e-002 2.91503444e-002
      -5.59204295e-002 -2.87648514e-002 2.79014055e-002 -7.99391195e-002
      3.94125506e-002 6.14908598e-002 4.38280255e-002 4.89888303e-002
      4.96272668e-002 -2.31619067e-002 5.13614416e-002 -7.97028840e-003
      -1.40386701e-001 -1.37777682e-002 7.61566460e-002 6.99815601e-002
      4.50922921e-002 1.98221672e-003 -7.96175227e-002 -1.06816571e-002
      4.69849445e-002 -2.90977564e-002 7.03656003e-002 3.83764282e-002
      4.03994583e-002 4.82230447e-002 2.58905720e-002 -4.58697453e-002
      2.52164211e-002 -7.09512504e-003 -8.93399492e-002 2.17469409e-002
      6.97870404e-002 7.16297477e-002 7.51428902e-002 -4.28897738e-002
      -1.14255182e-001 -3.84111702e-002 1.99086592e-002 -1.05999000e-001
      3.80662046e-002 6.10058717e-002 2.70704329e-002 4.41919677e-002
      2.43707336e-002 -5.93832098e-002 3.84289213e-002 -1.33900614e-002
      -7.67403916e-002 6.82142824e-002 3.46753076e-002 3.37484889e-002
      4.46848013e-002 5.39712496e-002 -1.69617205e-003 3.50945257e-002
      2.66255941e-002 -6.25582635e-002 5.94187826e-002 7.84361362e-002
      3.89593691e-002 8.83137733e-002 2.59426748e-003 -1.02559075e-001
      3.82985594e-003 2.99769500e-003 -3.91717665e-002 6.67006820e-002
      4.18355018e-002 4.06864956e-002 8.72288719e-002 5.34396134e-002
      -2.81942450e-002 -1.23750474e-002 2.54094210e-002 -4.20563035e-002
      4.30254266e-002 6.41023368e-002 8.06121379e-002 7.24811554e-002
      7.06781745e-002 6.58638426e-004 1.47791672e-002 -4.62874025e-002
      -8.35119188e-002 -5.32208662e-003 5.75022511e-002 1.07543856e-001
      6.28406629e-002 1.04880817e-002 -7.51799643e-002 -7.07609579e-002
      5.23173017e-003 -1.46304145e-002 8.55479166e-002 8.17039683e-002
      9.39734206e-002 8.18903074e-002 3.82122770e-002 -2.42290013e-002
      2.17747837e-002 -6.35326058e-002 -6.14474565e-002 4.02139798e-002
      6.91018850e-002 8.56075883e-002 5.42743020e-002 1.82089377e-002
      -8.17635804e-002 -6.63297176e-002 -7.97509775e-003
      -4.89888377e-002 -1.89983882e-002 2.02669669e-003 8.17193314e-002
      3.48003991e-002 -5.95188374e-003 -3.14537622e-002 -3.73423323e-002
      -2.92917136e-002 -5.30345291e-002 -1.88358594e-002 7.39434687e-003
      -1.47685455e-002 1.05771357e-002 -1.08584166e-002 -2.79295240e-002
      -3.23256068e-002 -4.59389985e-002 -5.43827862e-002 1.10299950e-002
      3.90242115e-002 6.53510541e-002 8.49387329e-003 -3.48188393e-002
      -4.71932851e-002 -2.84634810e-002 -3.60188261e-002
      -2.02374253e-002 6.54878700e-003 -1.67314522e-003 -2.14567240e-002
      3.47655714e-002 -3.36725102e-003 -3.87799926e-002 -2.69985460e-002
      -2.57238429e-002 -5.08679710e-002 -1.90954879e-002
      -7.36924708e-002 -2.21101910e-001 -1.17708549e-001
      -2.95380168e-002 -4.51650247e-002 -1.49865896e-002 1.09221742e-001
      7.61507526e-002 7.04675838e-002 7.96635076e-002 -4.22889851e-002
      1.68056972e-002 5.77966645e-002 7.84543529e-002 9.33982953e-002
      -3.46290357e-002 -2.54374631e-002 -3.50880586e-002
      -1.39576867e-001 -1.90360457e-001 -5.19912317e-002 1.01973303e-003
      -2.44671647e-002 -2.99868211e-002 8.14149007e-002 7.95036778e-002
      4.20690104e-002 1.24680027e-002 -4.27232198e-002 7.11729750e-002
      1.07372291e-001 1.17037408e-001 1.03706986e-001 -5.33398567e-003
      2.35311761e-002 4.88900812e-003 1.94833835e-003 1.04210153e-002
      -3.74148786e-002 -6.48847083e-003 4.19306122e-002 -2.97320052e-003
      -8.92382674e-003 2.63694208e-002 -3.54412268e-003 1.68907214e-002
      2.79824305e-002 -9.50154569e-003 -1.73248276e-002 3.83654237e-002
      2.99399742e-003 -2.82558892e-002 7.56398030e-003 -3.42834592e-002
      -3.51916105e-002 -2.39181239e-003 -1.31627414e-002 1.80015136e-002
      5.21913916e-002 1.01264715e-002 1.26050774e-003 -1.93089852e-003
      -4.94549908e-002 -1.49918050e-002 1.56587176e-002 9.68901347e-003
      -1.20692970e-002 3.30620296e-002 4.19155369e-003 -5.74929453e-002
      1.65263042e-002 3.38899009e-002 -2.61954963e-002 -3.11970990e-002
      -3.24599370e-002 2.62697898e-002 3.04471236e-002 -5.44382818e-002
      -7.00155497e-002 5.07191829e-002 7.21941367e-002 -3.64018083e-002
      -2.87762526e-002 -6.54501244e-002 8.76655895e-003 8.96361172e-002
      -5.00917621e-002 -1.61490636e-003 2.19392981e-002 6.98786927e-003
      -6.32539615e-002 -7.01033100e-002 -1.26512036e-001
      -2.80492399e-002 5.96246356e-003 -3.39052081e-002 -5.41779250e-002
      4.02510203e-002 7.68066198e-002 -4.86863516e-002 -5.76420426e-002
      -1.09102249e-001 -4.20747995e-002 2.96378266e-002 -6.76461458e-002
      3.54942493e-002 1.03218965e-001 6.51005656e-002 -7.01673375e-003
      -8.83941874e-002 -1.78099841e-001 -1.48592696e-001 6.43073441e-003
      3.38695683e-002 -5.58547229e-002 2.49307137e-002 3.55944000e-002
      1.24478554e-002 -5.37667051e-002 -1.46227255e-001 -1.77255541e-001
      -1.48406178e-001 -1.11263476e-001 3.13405097e-002 9.35781226e-002
      8.75053778e-002 1.45504214e-002 -2.23333575e-002 -7.72524625e-002
      -4.95779328e-002 5.22367693e-002 5.69908647e-003 -2.57063657e-002
      4.92300466e-002 4.71017845e-002 3.08088493e-003 8.42490140e-003
      -4.55839038e-002 -3.96627299e-002 -3.32528129e-002
      -7.23743886e-002 -1.47914320e-001 -1.10579215e-001
      -9.85804852e-003 3.66544873e-002 2.74384972e-002 3.99147131e-004
      -1.99838821e-002 -6.88689649e-002 -1.27624795e-001
      -1.26444682e-001 -1.81003049e-001 -1.16105534e-001 2.26408010e-003
      1.00423666e-002 -8.16775262e-002 -8.27237517e-002 -1.04905339e-002
      -2.57728603e-002 -7.46530518e-002 -4.07063998e-002 7.51685491e-003
      2.10669655e-002 2.91548725e-002 3.80514823e-002 6.26183860e-003
      1.98569577e-002 -6.89474419e-002 -4.24476229e-002 -7.55806640e-002
      -2.91811377e-002 2.68152375e-002 1.79374032e-002 -2.39036791e-002
      -4.59514260e-002 4.76111770e-002 5.92368515e-003 1.84635222e-002
      -7.62035027e-002 -9.56199765e-002 -2.32725739e-002
      -3.58381588e-003 -1.58333257e-001 -2.40689948e-001
      -1.35395885e-001 7.90278837e-002 1.15958959e-001 4.50161770e-002
      2.18682475e-002 4.48243618e-002 9.55798551e-002 1.07193096e-002
      -9.39806029e-002 -7.89765716e-002 7.42938444e-002 7.59058297e-002
      -3.64697515e-003 4.25323518e-003 4.71429229e-002 -1.61696840e-002
      -1.26028329e-001 -2.26947933e-001 -1.43168524e-001 4.32952605e-002
      1.01051815e-001 8.71634707e-002 7.32014328e-002 7.61247501e-002
      6.62599877e-002 -8.72394128e-004 -1.26890913e-001 -1.42934442e-001
      -9.38804471e-004 5.74775524e-002 -5.30080684e-002 -2.56614313e-002
      -4.98454180e-003 5.23089841e-002 5.86652607e-002 -1.11664552e-003
      -8.17499757e-002 -1.13390759e-002 1.61466524e-002 -5.06659634e-002
      2.13413946e-002 4.36268188e-002 8.25180933e-002 8.67057592e-002
      8.48009884e-002 -1.80526488e-002 1.91034470e-002 4.26692143e-002
      -1.91374272e-002 -1.06231775e-002 -6.13031629e-003 9.83232446e-003
      4.58085584e-003 -6.44213557e-002 -1.82299748e-001 -8.47304463e-002
      8.77115317e-003 -4.50134240e-002 -9.92702134e-003 1.35292318e-002
      4.25149314e-002 4.47321646e-002 5.88858426e-002 -6.42751157e-002
      -4.48826812e-002 1.10456059e-002 -5.08113801e-002 2.67993733e-002
      5.57456501e-002 8.54190141e-002 4.82507274e-002 4.96857129e-002
      -6.02107905e-002 -2.64063552e-002 2.95820311e-002 -2.48459969e-002
      8.47055949e-003 6.42426014e-002 9.77853686e-002 6.06113710e-002
      4.12652753e-002 -3.13483775e-002 -3.81168090e-002 -3.06101218e-002
      -7.96016604e-002 -2.27623228e-002 -1.37829524e-003 3.20519730e-002
      4.70509529e-002 2.35909950e-002 -8.83434191e-002 -3.96032408e-002
      -2.50329897e-002 -4.13798355e-002 -1.16076635e-003 3.89377773e-002
      3.87387611e-002 2.39562467e-002 -1.71612537e-005 -9.77872759e-002
      -6.50708228e-002 4.95129116e-002 -1.69196613e-002 -2.07605623e-002
      -1.36498790e-002 5.49882203e-002 2.51509193e-002 3.55301313e-002
      -3.28103118e-002 -6.16150815e-003 6.46059364e-002 1.20295389e-002
      2.17666049e-002 1.09518075e-003 2.12173946e-002 5.88000976e-002
      5.93883917e-002 -5.49386442e-003 2.28727441e-002 -2.42370814e-002
      -6.47602230e-002 -6.80097286e-003 7.03615276e-003 3.91742513e-002
      -2.61363108e-002 -3.57484445e-002 -1.50183529e-001
      -7.12643191e-002 -2.63379384e-002 -3.74622829e-002
      -2.46709380e-002 1.10089500e-002 1.49659822e-002 3.95960361e-002
      1.71247777e-002 -1.19998530e-001 -7.07993731e-002 5.47373407e-002
      -1.31932553e-002 1.68851782e-002 -2.80629825e-002 2.73041986e-002
      4.89143468e-002 4.44896929e-002 -2.91701332e-002 1.98761243e-002
      2.25687791e-002 7.70839513e-004 6.51532710e-002 2.20685005e-002
      3.51682045e-002 6.33746386e-002 5.03374524e-002 5.10275969e-003
      4.97219823e-002 -8.49362016e-002 -8.15537274e-002 -3.17927590e-003
      -1.62479300e-002 5.68805635e-003 4.15682644e-002 -8.82266148e-004
      -1.13625161e-001 -9.49311927e-002 -1.32306501e-001
      -8.94114897e-002 1.58636440e-002 -1.43724810e-002 -6.46008365e-003
      2.83405315e-002 3.73301953e-002 -8.20314884e-002 -1.00206807e-001
      1.74869027e-003 -2.50072926e-002 6.49203435e-002 1.47926593e-002
      4.49857190e-002 8.40551257e-002 6.29912317e-002 7.15564191e-003
      6.52426779e-002 -5.09495242e-003 -4.97605614e-002 7.28747770e-002
      2.49843486e-002 4.01560180e-002 7.29590729e-002 9.76470038e-002
      1.59745775e-002 2.00581718e-002 -1.10169306e-001 -1.19518451e-001
      1.35365324e-002 -3.24028879e-002 -1.58610232e-002 3.12046446e-002
      5.30029982e-002 -5.80461212e-002 -5.74668013e-002 -5.20106740e-002
      -1.02041215e-001 9.00200009e-003 -1.33688040e-002 -1.19329887e-002
      4.80361693e-002 7.01230913e-002 -2.17030551e-002 -2.90483944e-002
      3.15689184e-002 -6.68479428e-002 7.13932142e-002 5.47538139e-002
      3.94066535e-002 6.16713688e-002 6.48712516e-002 -3.28878388e-002
      -9.19570029e-003 -1.57518107e-002 -5.67488745e-002 6.42713308e-002
      8.37411806e-002 7.70843625e-002 7.73330033e-002 2.21439957e-004
      -8.45548660e-002 -5.20157367e-002 -2.72413604e-002
      -4.86598313e-002 4.82456125e-002 3.63014974e-002 7.73674017e-003
      4.15433012e-002 5.10683060e-002 -5.26414290e-002 -1.56518966e-002
      -8.84521101e-003 -1.28825773e-002 7.49954730e-002 6.74394295e-002
      3.76190357e-002 5.88591620e-002 3.68755348e-002 -5.51540852e-002
      -3.69663686e-002 1.37696620e-002 -3.07148434e-002 5.62053584e-002
      7.14522526e-002 4.25337814e-002 7.62190893e-002 1.31111871e-002
      -1.07105270e-001 -2.29863822e-002 -1.82036590e-002
      -1.61089264e-002 5.03227301e-002 2.60198396e-002 3.39024886e-002
      4.58846986e-002 1.37700168e-002 -7.07261786e-002 -3.54534090e-002
      1.50035974e-002 -2.43423638e-004 9.26588997e-002 5.51201440e-002
      1.70420185e-002 5.87956570e-002 2.73752641e-002 -3.81902233e-002
      5.62554458e-003 1.96429174e-002 3.71166877e-002 7.87941441e-002
      1.96386557e-002 -2.34859455e-002 -4.15751664e-003 1.09629752e-002
      -2.56090555e-002 -3.18172830e-003 -1.10250497e-002
      -4.18300703e-002 6.27673715e-002 4.21495475e-002 5.55418432e-002
      2.62071267e-002 1.56283118e-002 -4.95768078e-002 -3.33836339e-002
      -8.12188163e-002 -8.94396901e-002 3.44933346e-002 4.94751893e-002
      2.01624725e-002 1.07796432e-003 5.38063888e-003 -8.15276206e-002
      -8.53189602e-002 5.39837033e-002 6.19855747e-002 1.04126811e-001
      4.48735021e-002 2.35152356e-002 2.09197402e-002 8.67116824e-003
      -7.98874348e-003 4.40605544e-002 3.51870619e-002 2.82419957e-002
      6.20036125e-002 3.34474072e-002 1.47103495e-003 4.08631563e-002
      3.93919908e-002 -1.48203867e-002 1.35658644e-002 -3.25826257e-002
      -7.40682334e-002 -4.79021808e-003 6.28535682e-003 -1.47653194e-002
      -4.07004431e-002 -7.52688646e-002 -1.11393787e-001
      -5.39256595e-002 -2.68423427e-002 -4.06934768e-002
      -1.11225098e-002 -2.34306976e-002 -4.96072471e-002
      -3.96265183e-003 -7.67939836e-002 -9.70667005e-002
      -5.85641824e-002 2.63141673e-002 7.72939110e-003 3.54060717e-002
      1.79002900e-002 3.36937457e-002 3.32649536e-002 -1.11383907e-002
      -4.99325432e-002 2.24346668e-002 5.88317923e-002 2.94580963e-002
      2.96176095e-002 3.41354609e-002 1.10839037e-002 6.02264740e-002
      5.07521536e-003 -8.94576719e-004 3.34340669e-002 -3.88633572e-002
      -6.98070750e-002 -8.07084665e-002 -1.69776678e-001
      -1.73150584e-001 -5.52059710e-002 -4.04885970e-002
      -6.88257664e-002 -4.71900664e-002 4.97730002e-002 4.34536748e-002
      4.82236966e-003 -4.67678457e-002 -4.97776195e-002 5.14963865e-002
      6.41241595e-002 5.94394691e-002 5.13821281e-002 1.61732128e-003
      -2.63655614e-002 -5.22120222e-002 -1.17857166e-001
      -1.03592269e-001 -3.08467913e-002 3.41863814e-003 7.55796861e-003
      3.69897783e-002 6.23107888e-002 4.23687175e-002 -2.00636382e-003
      -1.48935895e-002 2.56962702e-002 6.27843887e-002 8.57745409e-002
      1.01054549e-001 8.25538263e-002 -1.77384149e-002 -1.54456263e-003
      -3.18897814e-002 -4.80627269e-002 3.44128050e-002 1.95860136e-002
      -8.48247111e-003 2.45112535e-002 -4.66873497e-003 1.60622373e-002
      -9.41293663e-004 -5.43720014e-002 -5.25955260e-002 1.44462939e-002
      2.70588603e-003 -2.16879770e-002 2.88512111e-002 7.85699766e-003
      -1.74504251e-003 1.94604062e-002 7.51806423e-003 -2.28567813e-002
      5.04557639e-002 -4.80910297e-003 -1.01179052e-002 2.24791616e-002
      -1.62814669e-002 3.92375253e-002 9.74342786e-003 -3.51180248e-002
      -2.94590946e-002 8.27143248e-003 2.12406507e-003 -6.41757529e-003
      3.51377465e-002 3.07423342e-002 -8.83460138e-003 1.61556229e-002
      1.14757111e-002 -3.39484327e-002 -4.48923446e-002 -4.76207808e-002
      2.48418730e-002 2.39491519e-002 -1.19819958e-002 -2.03829352e-002
      1.63550805e-002 3.14399786e-002 -2.87372656e-002 1.40445912e-002
      -6.93351903e-004 2.96128299e-002 1.60459951e-002 -5.26097454e-002
      -2.65686009e-002 3.46469507e-002 5.34711592e-002 -1.72157176e-002
      -9.58473831e-002 -6.52111247e-002 2.09761132e-002 -5.62641537e-003
      -6.35021031e-002 -6.08369894e-002 -7.17148010e-004 7.68812979e-003
      -4.17816453e-002 -2.52463594e-002 -2.40622349e-002 4.03124988e-002
      -4.32841247e-003 -8.88407454e-002 -1.20609244e-002 3.14039588e-002
      3.17910537e-002 -4.29257825e-002 -7.43228570e-003 -3.86300613e-003
      -8.42439011e-003 3.58689763e-002 -1.59103572e-002 -1.77915487e-002
      5.54064028e-002 4.51185480e-002 -3.78555642e-003 1.81928948e-002
      1.45316944e-002 8.02127179e-003 4.48044427e-002 -5.42939529e-002
      -5.14238887e-002 1.64297386e-003 1.92041807e-002 -2.83763651e-002
      -1.13556460e-002 1.12870615e-003 2.92216539e-002 2.73241326e-002
      -6.01797625e-002 -7.15797469e-002 2.21531894e-002 7.46400515e-003
      -2.27074381e-002 -4.81085666e-002 -1.57483239e-002 4.45078686e-002
      3.31262127e-002 -6.11225031e-002 -2.82637831e-002 3.78726632e-003
      1.78548004e-002 -1.34201078e-002 -8.57845601e-003 2.85296720e-002
      2.18792763e-002 4.44558635e-002 -2.99039297e-002 -1.77963683e-003
      -4.46383841e-002 1.09810266e-003 2.53922306e-002 1.45118162e-002
      -1.28075900e-002 -9.93201230e-003 3.77806947e-002 3.40097607e-003
      -4.19860631e-002 1.45163173e-002 -1.60978306e-002 -9.20753647e-003
      -4.77487929e-002 -2.06676200e-002 3.14133540e-002 1.77136213e-002
      -4.13981266e-002 -2.95925122e-002 -5.78992255e-002
      -3.13779265e-002 -1.57077238e-002 -1.01822037e-002
      -6.91756839e-003 -1.31750782e-003 -6.13120291e-003
      -2.53130775e-002 3.81248780e-002 -2.66625714e-002 -1.35398433e-002
      2.03770157e-002 1.49587393e-002 -3.62248495e-002 -1.11681938e-001
      -6.82179704e-002 4.30289246e-002 9.16557014e-002 5.83198816e-002
      1.39174471e-002 1.60496980e-002 5.13710678e-002 2.62524839e-002
      -5.41153252e-002 -1.21599302e-001 6.13828981e-003 -2.40841489e-002
      -2.20122412e-002 1.42935179e-002 5.04937209e-003 -7.57770333e-003
      2.83681676e-002 -1.20949857e-002 -3.37849669e-002 -9.61988699e-003
      2.52085924e-002 1.43398661e-002 4.12853472e-002 2.03071442e-002
      3.79421748e-002 4.60154228e-002 1.53071424e-002 -3.37144583e-002
      -3.72844860e-002 7.62831345e-002 -3.14731675e-004 -4.13758866e-003
      -1.68765814e-003 1.46129495e-002 1.52619686e-002 -5.65530639e-003
      -1.51022106e-001 -5.56451902e-002 7.23944530e-002 -1.02770114e-002
      -8.58597632e-004 3.03992555e-002 2.71928571e-002 1.96987744e-002
      6.16228990e-002 -7.30851069e-002 -2.88154464e-002 4.63887956e-003
      -2.20489670e-002 -8.51032510e-003 -3.02244481e-002
      -3.14756297e-002 2.25610584e-002 1.81674231e-002 -5.93305975e-002
      -6.15978837e-002 -3.21494136e-003 -1.30519699e-002 2.32290812e-002
      2.63721291e-002 9.42844059e-003 6.47178441e-002 7.18031600e-002
      -1.98194273e-002 -3.20823938e-002 5.45780025e-002 -5.23510091e-002
      -1.90059748e-002 -9.07272939e-003 4.25837282e-003 5.94038167e-004
      2.34988704e-003 -8.60916823e-002 -1.01415701e-002 5.22897206e-002
      -2.43992992e-002 4.66783065e-003 3.43623087e-002 1.43391732e-002
      6.28117518e-003 8.11311044e-003 -5.33111691e-002 1.14724943e-002
      -3.60107273e-002 -7.06928894e-002 1.86489373e-002 -1.60079077e-002
      -2.57017631e-002 1.34009654e-002 2.64618099e-002 -4.15934883e-002
      -1.95734892e-002 6.07459398e-004 -1.85924955e-002 3.54141928e-002
      2.79416554e-002 -1.01169664e-002 2.67085750e-002 4.10639308e-002
      4.05399641e-003 5.28484583e-003 2.16958616e-002 -5.03074974e-002
      -1.38434749e-002 -2.79253768e-003 -1.10518793e-002
      -1.82852801e-002 -3.89453652e-003 -1.03842854e-001
      -3.83419096e-002 8.56764708e-003 -6.99192211e-002 5.92871511e-004
      3.40397283e-002 1.71976071e-002 2.77277734e-002 2.85831932e-002
      -6.84292391e-002 -3.75381410e-002 -1.13126272e-002
      -2.61918008e-002 2.32933126e-002 1.62618868e-002 -1.94440577e-002
      -1.91251766e-002 1.07468972e-002 -2.15585046e-002 -2.14122292e-002
      -8.51671118e-003 -3.96012403e-002 3.61189209e-002 3.22137810e-002
      -1.58665108e-003 1.87081918e-002 1.65893021e-003 -1.78728905e-002
      -7.26745743e-003 4.31394344e-003 -6.88365400e-002 -4.13294183e-003
      -1.02764228e-002 4.04015509e-003 8.03866051e-003 2.85613071e-002
      -6.53047711e-002 -3.89941372e-002 -2.88025104e-002
      -5.08457310e-002 -7.67190475e-003 -5.43507859e-002
      -3.24816890e-002 -1.17220376e-002 3.43451761e-002 -4.27315235e-002
      -1.68795362e-002 -2.35817675e-002 -7.74018243e-002 1.85662955e-002
      2.60844342e-002 1.68851297e-002 -1.99266430e-003 2.19298303e-002
      8.06451216e-003 2.09549088e-002 1.03438506e-002 -4.85656895e-002
      -6.56162715e-003 5.22733317e-004 -2.42652581e-003 2.57003698e-002
      4.12976034e-002 2.20185090e-002 5.24503272e-003 -1.09817330e-002
      -4.87798154e-002 -2.79000066e-002 -6.85046464e-002
      -6.91495165e-002 -3.24564204e-002 2.02235263e-002 -3.45069133e-002
      1.69897508e-002 2.78809126e-002 -3.06051522e-002 1.87605433e-003
      -3.62266973e-002 -5.19544668e-002 -3.35413218e-002 6.96893875e-003
      -6.74461434e-003 1.83168296e-002 -1.03555415e-002 -1.74266491e-002
      1.55873643e-002 -1.97432619e-002 -2.11567264e-002 1.32558532e-002
      2.26770975e-002 3.01836594e-003 2.03746110e-002 2.47756895e-002
      4.49428819e-002 7.26428479e-002 1.77766830e-002 -1.22198705e-002
      7.30992761e-003 2.06505302e-002 -9.07962210e-003 4.95866127e-003
      4.79365773e-002 -2.44884696e-002 1.99354943e-002 -4.62126508e-002
      -6.20902441e-002 -3.70497741e-002 -1.04847958e-003
      -7.65186176e-002 2.13543000e-003 6.70327619e-002 7.70934450e-004
      3.66392657e-002 -2.12115254e-002 -1.44123035e-002 -1.71643719e-002
      8.13924149e-003 -5.69927543e-002 4.24085744e-002 5.41696772e-002
      9.24425479e-003 5.69141470e-002 3.42050451e-003 1.36462925e-002
      -1.33604500e-002 2.08654460e-002 3.05160088e-003 1.14767235e-002
      6.32889867e-002 2.44717877e-002 3.02527882e-002 1.89997219e-002
      3.86142433e-002 2.23941915e-002 3.98152210e-002 1.35748815e-002
      4.40549292e-002 5.31172045e-002 -2.97831576e-002 6.75065583e-003
      -3.57290171e-002 -4.38153334e-002 -1.76408403e-002
      -2.56331125e-003 -4.51101772e-002 3.03385705e-002 4.57978025e-002
      2.42207795e-002 6.49456028e-003 -3.06171831e-002 -5.13441227e-002
      -4.46788333e-002 9.32889525e-003 -3.46201919e-002 3.92745510e-002
      8.58294517e-002 1.24437548e-003 1.82035640e-002 -1.58057231e-002
      -2.98687746e-003 1.29510397e-002 2.64571365e-002 -2.15717289e-003
      6.69019148e-002 8.28257576e-002 9.39536374e-003 9.10930429e-003
      -1.39029871e-003 1.28473043e-002 -2.32555829e-002 2.22871676e-002
      2.70601120e-002 6.51748851e-002 5.66017181e-002 5.66468053e-002
      4.05219048e-002 -5.77360345e-003 -3.84870991e-002 -2.47672703e-002
      -1.74059707e-003 -4.33027968e-002 2.00114753e-002 2.19488572e-002
      8.35047197e-003 8.58332869e-003 -3.95656303e-002 -1.55288177e-002
      6.70247711e-003 -1.49509665e-002 -5.15389889e-002 -3.12299421e-003
      5.65924346e-002 1.84607897e-002 3.03792618e-002 2.04202384e-002
      -6.63817069e-003 -1.94363780e-002 1.55483242e-002 2.72120666e-002
      4.44790572e-002 6.42980710e-002 4.92859818e-002 5.17485626e-002
      4.23878953e-002 5.28540649e-002 3.12179830e-002 2.26723794e-002
      1.06691867e-002 2.94809528e-002 -3.94640816e-003 -4.78564352e-002
      -4.01930474e-002 -6.04606718e-002 -1.66983884e-002
      -1.79554038e-002 -4.59116474e-002 -9.28077772e-002
      -3.02665541e-003 2.11490481e-003 -5.97487167e-002 -3.85127105e-002
      -2.81043686e-002 1.67207532e-002 9.45684407e-003 -4.53393795e-002
      -5.53105064e-002 5.85914264e-003 4.98518609e-002 -1.24176950e-004
      1.99436489e-002 3.85914259e-002 8.07139874e-002 3.97123322e-002
      1.93575434e-002 -6.44108653e-003 2.37867776e-002 3.19242962e-002
      1.91535484e-002 4.29277420e-002 5.68498559e-002 6.31550178e-002
      5.46958484e-002 1.78670306e-002 2.33903546e-002 3.21804322e-002
      -2.44276021e-002 -5.53237125e-002 -7.20086396e-002
      -8.24724212e-002 -6.38382435e-002 1.26753352e-003 -2.75924224e-002
      -3.53530329e-003 1.54861240e-002 1.81241781e-002 -8.04797933e-003
      -1.29885236e-002 -2.06688717e-002 1.56133564e-003 5.74194714e-002
      5.01859337e-002 6.62889406e-002 5.01852781e-002 -2.44793724e-002
      1.86737685e-003 -5.52979531e-003 -1.94063480e-003 2.89298769e-004
      6.64254799e-002 -2.53971741e-002 2.37162113e-002 -7.08681392e-003
      -8.73621646e-003 3.18232477e-002 4.23476100e-002 4.66385782e-002
      4.52581197e-002 5.94315939e-002 1.11095728e-002 3.68996598e-002
      1.31800864e-002 -1.80298220e-002 -3.68491281e-003 5.82779385e-003
      9.38838627e-003 5.66651560e-002 1.28892269e-002 1.19735291e-002
      4.24497649e-002 2.81681377e-003 4.39579263e-002 2.55885758e-002
      -3.41671449e-003 1.58642866e-002 -1.47519005e-003 -3.72810028e-002
      -8.05506483e-003 4.29670028e-002 5.58499545e-002 -4.77384329e-002
      5.26029058e-003 2.99587660e-002 -1.17950770e-003 6.74959794e-002
      -1.62401926e-002 1.74281187e-003 3.66720632e-002 -1.36267822e-002
      -2.12181006e-002 2.48450250e-003 -1.07499976e-002 6.06780639e-003
      1.76717732e-002 1.05765968e-004 -7.28540029e-003 3.95068154e-002
      3.42760747e-003 -4.65161651e-002 3.03304736e-002 7.31980130e-002
      -1.86308916e-003 -9.32924971e-002 -7.77527243e-002 2.57398821e-002
      -2.69703544e-003 -5.46276420e-002 -2.68237889e-002 2.85267327e-002
      2.86639463e-002 -3.46388631e-002 -3.53095494e-002 -4.42253202e-002
      1.86540522e-002 2.14931238e-002 -4.02367488e-002 -8.12503546e-002
      -5.19043952e-003 4.76821363e-002 -4.21150625e-002 2.98794266e-003
      -6.75067827e-002 1.20331757e-002 3.01335882e-002 -3.92967761e-002
      -1.05419435e-001 -2.78408197e-003 4.63069491e-002 -6.41029030e-002
      5.77054173e-002 -6.58152699e-002 1.98602048e-003 2.69446615e-002
      -8.45977589e-002 1.55044789e-003 2.67058215e-003 7.02722091e-003
      -3.64522822e-002 -2.06799135e-002 -2.51165815e-002 1.41639384e-002
      2.18839739e-002 -1.05800238e-002 -4.28928770e-002 -3.56050953e-003
      1.37187550e-002 -1.65717099e-002 -5.30768149e-002 -4.15487364e-002
      2.63946932e-002 5.45178168e-003 -4.03413363e-002 -5.78184128e-002
      -6.56816829e-003 -1.56756979e-003 -7.18436688e-002 2.72715054e-002
      -7.33522698e-002 -1.64879411e-002 3.97865474e-002 -3.54618430e-002
      -4.85256799e-002 -3.87765281e-002 -3.16636004e-002
      -7.72859827e-002 2.65524872e-002 -7.91937411e-002 -2.43293345e-002
      1.73267759e-002 -4.05306146e-002 -6.30632835e-003 9.92472400e-004
      -1.91411906e-004 -3.17748892e-003 -3.53385992e-002
      -7.60603044e-003 1.08933216e-002 3.26608610e-003 -1.24661904e-002
      -6.53302483e-003 -4.31432575e-002 -1.14508113e-002
      -9.35936533e-003 -2.24224851e-002 -2.64002010e-003
      -1.97305018e-003 5.45168668e-003 7.45793513e-004 -2.34674886e-002
      -3.23117971e-002 -4.99805398e-002 -7.84330890e-002 5.53093627e-002
      -6.86029047e-002 -2.46636644e-002 6.16116961e-003 -2.13511791e-002
      -3.72226126e-002 -7.00261891e-002 -5.08314967e-002
      -5.80122173e-002 6.36224225e-002 -5.42069674e-002 -3.61602642e-002
      -3.37117650e-002 -3.30907144e-002 -8.25913798e-004
      -3.24627459e-002 6.00420311e-003 -5.91820665e-003 -2.95429714e-002
      1.64644942e-002 -8.02669022e-003 -2.27908008e-002 3.30424658e-003
      5.13405241e-002 6.23617508e-003 2.78553702e-002 -5.55451494e-004
      6.87922537e-003 1.92561354e-002 2.91820541e-002 1.83701776e-002
      2.15881709e-002 -2.00497005e-002 -3.50056440e-002 -1.32206595e-002
      -5.71995452e-002 3.96446623e-002 -3.08444351e-002 -2.28252634e-002
      -3.39349359e-002 -1.38128572e-003 1.23550287e-002 -1.63818412e-002
      1.76018663e-002 -3.10033001e-002 9.67197567e-002 -1.36429975e-002
      1.05742635e-002 7.92908296e-003 5.12138605e-002 2.31089015e-002
      -6.77966252e-002 -2.25931928e-002 -4.51715700e-002
      -6.15862310e-002 -6.05402980e-003 4.02559638e-002 3.98347899e-003
      2.54771598e-002 -2.39158934e-003 -4.13294546e-002 2.59049889e-002
      1.98928863e-002 -5.90161160e-002 4.06620540e-002 7.40446076e-002
      4.36409190e-002 3.76804732e-002 7.14346487e-003 -5.67484349e-002
      -7.15964986e-003 -4.55206037e-002 5.43840826e-002 -6.20794706e-002
      -7.23207882e-003 -5.81834977e-003 2.20276993e-002 1.68265626e-002
      -9.25044529e-003 4.51256074e-002 -1.59128979e-002 4.69265543e-002
      -2.35588420e-002 5.19890562e-002 5.00323549e-002 4.25468311e-002
      -1.03408135e-002 -7.22026601e-002 1.06710494e-002 -1.92287229e-002
      -7.66929165e-002 -1.34485941e-002 4.42106165e-002 1.99446990e-003
      1.22562749e-002 1.60335544e-002 -1.36516495e-002 2.75877789e-002
      1.44720962e-002 -4.38454635e-002 1.12622017e-002 4.90490831e-002
      1.46826720e-002 1.65811442e-002 -9.03789792e-003 -4.62874696e-002
      2.43316758e-002 -4.52950485e-002 1.73745081e-002 -4.93311323e-002
      3.68390419e-002 2.08415668e-002 1.35382479e-002 9.34313238e-003
      5.76220406e-003 6.03518635e-002 1.91183062e-003 6.39358684e-002
      4.43062047e-003 6.10332862e-002 5.20802587e-002 9.46136657e-003
      -9.11598373e-003 -3.23494077e-002 5.97467925e-003 -8.88570491e-003
      -8.07516128e-002 -4.34039570e-002 6.71039568e-003 -2.09090505e-002
      -2.62382664e-002 4.35472978e-003 -1.50410784e-002 6.75064698e-002
      2.13446710e-002 -4.74834777e-002 -1.93701200e-002 2.28736438e-002
      7.81074772e-003 1.64331086e-002 -1.18172951e-002 -2.02917885e-002
      2.54233610e-002 -6.79829111e-003 6.73874840e-002 -3.81434225e-002
      3.23611535e-002 1.65934432e-002 2.80677516e-004 6.38152845e-003
      -6.94357371e-003 6.42169490e-002 -2.10464466e-002 7.43204802e-002
      -4.27034870e-002 5.48102334e-002 4.74128537e-002 2.38824598e-002
      -1.75927859e-002 -6.70884922e-002 2.64051612e-002 1.31732356e-002
      -2.01636981e-002 -3.21992785e-002 1.69525892e-002 -5.98241622e-003
      2.49382537e-002 9.14960809e-004 -3.83709483e-002 1.34359198e-002
      2.32378282e-002 -1.71513539e-002 3.39198634e-002 2.92385332e-002
      6.72022440e-003 1.76785700e-002 -2.14890521e-002 -4.36834246e-002
      4.49030139e-002 -2.18946207e-002 5.69179468e-002 -4.96306866e-002
      3.90728079e-002 2.55069807e-002 2.19748765e-002 -2.15242933e-002
      -1.06021054e-002 4.17334661e-002 -1.52340112e-002 5.79255223e-002
      7.45594222e-003 1.90623868e-002 3.00694499e-002 1.66206565e-002
      -4.05627396e-003 -3.02134827e-002 -1.76343825e-002
      -2.42168494e-002 -1.89980194e-002 1.06656021e-002 -8.89755413e-003
      7.76416901e-003 -1.24137728e-002 2.32570115e-002 2.09013764e-002
      4.88401651e-002 1.68995429e-002 2.06643734e-002 -1.01374201e-002
      -2.24634819e-002 -5.50647872e-003 9.03643854e-003 -3.17054626e-004
      -2.21126433e-002 -4.63236775e-003 -1.75832193e-002 4.79035117e-002
      -5.44844680e-002 -4.65025380e-002 1.24916304e-002 4.37761620e-002
      9.40233096e-003 -3.49972700e-003 3.41372415e-002 1.09855579e-002
      9.33816209e-002 -2.83283759e-002 -2.26276387e-002 1.29874665e-002
      2.35324949e-002 2.12000478e-002 -7.68980524e-003 3.64317894e-002
      1.48132583e-002 2.59102844e-002 -4.14350443e-002 -2.32937243e-002
      -5.41971158e-003 -1.44600857e-003 1.26540223e-002 -2.68709823e-003
      3.87162529e-002 8.75882152e-003 4.13981779e-003 -1.25688768e-003
      3.03015150e-002 1.12227630e-002 8.94168857e-003 -4.49601514e-003
      -2.60689165e-002 3.49365659e-002 1.50685729e-002 1.10564470e-001
      -9.49169789e-003 1.89183578e-002 3.06198541e-002 2.31845248e-002
      2.52408274e-002 -3.72020751e-002 2.80738734e-002 -2.78311446e-002
      5.41238561e-002 1.85381994e-002 5.73561825e-002 2.95992792e-002
      2.27177609e-002 4.47834842e-002 -2.06289580e-003 2.95463949e-002
      -2.09582802e-002 -2.57023908e-002 -1.83841158e-002
      -1.21707795e-003 -6.15429413e-003 4.51627672e-002 6.30070642e-002
      -1.01710698e-002 3.67238023e-003 2.32842495e-003 -9.13103949e-003
      -3.69547866e-002 -1.17794601e-002 6.41427701e-003 6.44343868e-002
      4.88176122e-002 -3.97940306e-003 3.12068332e-002 -1.39457481e-002
      4.33551669e-002 -3.19219679e-002 2.24959739e-002 1.68566369e-002
      4.45078537e-002 4.54656184e-002 2.62958445e-002 1.93236191e-002
      2.03843135e-002 8.06103870e-002 -4.04860592e-003 1.99862104e-002
      1.22548258e-002 3.44977938e-002 3.65101546e-002 -8.17672163e-003
      -9.48779657e-003 -9.16406792e-003 -6.91063032e-002
      -5.36943749e-002 -1.35519998e-002 -5.44258859e-003 2.40392648e-002
      5.48648015e-002 1.94625724e-002 3.89042012e-002 3.78230363e-002
      4.45067231e-003 1.57591365e-002 2.39035133e-002 4.85770442e-002
      6.32631183e-002 5.09403422e-002 2.17983164e-002 2.42049601e-002
      4.62528830e-003 7.39346892e-002 -3.32868434e-002 -1.37379393e-002
      2.90021882e-003 5.16882911e-002 4.62809317e-002 3.36238043e-003
      5.78084663e-002 2.74229255e-002 1.20511107e-001 3.46241482e-002
      4.00051437e-002 3.53516713e-002 6.12665638e-002 2.46640686e-002
      -2.23417599e-002 6.02693809e-003 -1.09859202e-002 -1.92938268e-003
      -1.98472850e-002 -2.47182287e-002 1.31185283e-003 5.57764200e-003
      1.68635277e-004 -7.66981253e-003 -2.44699325e-003 2.75036301e-002
      1.84564330e-002 5.77216176e-003 -3.27512212e-002 -1.23592680e-002
      4.29892773e-003 3.66741084e-002 -7.39754504e-003 3.56820039e-002
      1.39676605e-003 9.96402502e-002 -8.79421737e-003 -1.74874328e-002
      -1.33052040e-002 4.72441018e-002 2.56949961e-002 -1.61213931e-002
      6.84206234e-003 2.31115464e-002 6.13052323e-002 -6.93369005e-003
      -3.02535444e-002 -2.33957749e-002 3.28413658e-002 -2.65731663e-002
      -4.85711731e-003 1.10744042e-002 3.18272342e-003 1.49143683e-002
      4.16854806e-002 -3.65748256e-002 -1.65598877e-002 8.00423604e-003
      9.76101402e-003 3.96726616e-002 2.33994406e-002 3.15983221e-002
      1.88592486e-002 2.13348586e-002 -1.29687693e-002 3.21925543e-002
      1.89962219e-002 -1.20295137e-002 -3.29931527e-002 1.27331056e-002
      -7.09204888e-003 4.70000915e-002 -2.25759279e-002 -6.33631721e-002
      -4.03045826e-002 6.74981158e-003 1.63381305e-002 3.56557034e-002
      4.41200659e-003 5.15609235e-003 7.12021291e-002 -1.36798909e-002
      -2.91974507e-002 4.26881830e-004 1.41496155e-002 -8.18067137e-003
      3.26850228e-002 2.06285957e-002 1.23552680e-002 6.57709464e-002
      -6.73542265e-004 9.26248380e-004 3.34636122e-002 -1.88691840e-002
      -2.53545251e-002 -2.09431536e-002 -2.79400013e-002 3.47808911e-003
      3.46322693e-002 1.20810019e-002 3.49942455e-003 3.33798900e-002
      -6.87906798e-003 -3.45473327e-002 2.46710368e-002 7.81506766e-003
      -6.73101004e-003 1.44570157e-001 -2.89347377e-002 -4.84780502e-003
      2.03868728e-002 -1.74576063e-002 -6.16955608e-002 -5.43294735e-002
      -3.42193209e-002 -6.55789487e-003 1.34860545e-001 -2.38891076e-002
      -2.46732701e-002 2.55227722e-002 -7.26446789e-003</_></support_vectors>
  <decision_functions>
    <_>
      <sv_count>1</sv_count>
      <rho>-1.8963020935929911e+000</rho>
      <alpha>
        1.</alpha>
      <index>
        0</index></_></decision_functions></my_svm>
</opencv_storage>
